{
  "features_info":
    {
      "categorical_features":
        [
          {
            "feature_index":0,
            "flat_feature_index":6,
            "values":
              [
                1121341681
              ]
          },
          {
            "feature_index":1,
            "flat_feature_index":7,
            "values":
              [
                1121341681
              ]
          },
          {
            "feature_index":2,
            "flat_feature_index":8,
            "values":
              [
                1121341681
              ]
          },
          {
            "feature_index":3,
            "flat_feature_index":9,
            "values":
              [
                -1438285038
              ]
          },
          {
            "feature_index":4,
            "flat_feature_index":10,
            "values":
              [
                1121341681
              ]
          },
          {
            "feature_index":5,
            "flat_feature_index":11,
            "values":
              [
                1121341681
              ]
          },
          {
            "feature_index":6,
            "flat_feature_index":12,
            "values":
              [
                -1438285038
              ]
          }
        ],
      "float_features":
        [
          {
            "borders":
              [
                1.25,
                1.5499999523162842,
                1.7000000476837158,
                1.8499999046325684,
                1.9500000476837158,
                2.0499999523162842,
                2.1500000953674316,
                2.25,
                2.3499999046325684,
                2.4500000476837158,
                2.5499999523162842,
                2.6500000953674316,
                2.75,
                2.9500000476837158,
                3.0499999523162842,
                3.1500000953674316,
                3.25,
                3.3499999046325684,
                3.4500000476837158,
                3.5499999523162842,
                3.6500000953674316,
                3.75,
                3.8499999046325684,
                3.9500000476837158,
                4.0500001907348633,
                4.1499996185302734,
                4.25,
                4.3500003814697266,
                4.4499998092651367,
                4.5500001907348633,
                4.6007795333862305,
                4.6507797241210938,
                4.75,
                4.8500003814697266,
                4.9499998092651367
              ],
            "feature_index":0,
            "flat_feature_index":0,
            "has_nans":false,
            "nan_value_treatment":"AsIs"
          },
          {
            "borders":
              [
                1.75,
                2.1500000953674316,
                2.4000000953674316,
                2.5999999046325684,
                2.75,
                2.9000000953674316,
                3.0999999046325684,
                3.25,
                3.3499999046325684,
                3.4500000476837158,
                3.5499999523162842,
                3.6500000953674316,
                3.75,
                3.8499999046325684,
                3.9500000476837158,
                4.0500001907348633,
                4.1499996185302734,
                4.25,
                4.3500003814697266,
                4.4499998092651367,
                4.5500001907348633,
                4.6499996185302734,
                4.7390789985656738,
                4.7890791893005371,
                4.8500003814697266,
                4.9499998092651367
              ],
            "feature_index":1,
            "flat_feature_index":1,
            "has_nans":false,
            "nan_value_treatment":"AsIs"
          },
          {
            "borders":
              [
                0.5,
                1.5,
                2.5,
                3.5,
                4.5,
                5.5,
                6.5,
                7.5,
                8.5,
                9.5,
                10.5,
                11.5,
                12.5,
                13.5,
                14.5,
                15.5,
                16.5,
                17.5,
                18.5,
                20.5,
                21.5,
                22.5,
                24.5,
                25.5,
                26.5,
                27.5,
                28.5,
                32.5,
                33.5,
                35,
                36.5,
                37.5,
                38.5,
                39.5,
                41.5,
                43,
                45.5,
                48,
                49.5,
                52
              ],
            "feature_index":2,
            "flat_feature_index":2,
            "has_nans":false,
            "nan_value_treatment":"AsIs"
          },
          {
            "borders":
              [
                0.20000000298023224,
                0.75,
                0.85000002384185791,
                0.94999998807907104,
                1.0499999523162842,
                1.1500000953674316,
                1.25,
                1.3499999046325684,
                1.4500000476837158,
                1.5499999523162842,
                1.6500000953674316,
                1.75,
                1.8499999046325684,
                2.25,
                2.4500000476837158,
                2.75,
                2.8499999046325684,
                2.9500000476837158,
                3.0499999523162842,
                3.1500000953674316,
                3.25,
                3.3499999046325684,
                3.6500000953674316,
                3.8499999046325684,
                3.9500000476837158,
                4.0500001907348633,
                4.25,
                4.3500003814697266,
                4.5500001907348633,
                4.6499996185302734,
                4.75,
                4.9499998092651367,
                5.1499996185302734,
                5.25,
                5.4499998092651367,
                5.5500001907348633,
                5.6499996185302734,
                5.8500003814697266,
                5.9499998092651367,
                6.0500001907348633,
                6.25,
                6.3500003814697266,
                6.5500001907348633,
                6.6499996185302734,
                6.8500003814697266,
                6.9499998092651367,
                7.0500001907348633,
                7.1499996185302734,
                7.3500003814697266,
                8.0500001907348633,
                8.6499996185302734,
                8.8500003814697266,
                9.0500001907348633,
                9.25,
                9.3500003814697266,
                9.75,
                10.050000190734863,
                10.75,
                11.050000190734863,
                11.200000762939453,
                11.949999809265137,
                12.050000190734863,
                12.149999618530273,
                12.449999809265137,
                12.550000190734863,
                13.350000381469727,
                13.449999809265137,
                13.649999618530273,
                13.75,
                13.850000381469727,
                13.949999809265137,
                14.200000762939453,
                14.350000381469727,
                14.550000190734863,
                14.850000381469727,
                15.100000381469727,
                15.850000381469727,
                16.349998474121094,
                16.600000381469727,
                16.75,
                17.150001525878906,
                17.450000762939453,
                17.549999237060547,
                17.849998474121094,
                17.950000762939453,
                18.849998474121094,
                19.049999237060547,
                19.349998474121094,
                19.450000762939453,
                19.899999618530273,
                20.100000381469727,
                20.450000762939453,
                20.650001525878906,
                20.75,
                20.950000762939453,
                21.349998474121094,
                21.650001525878906,
                22.150001525878906,
                22.450000762939453,
                22.650001525878906,
                23.049999237060547,
                23.450000762939453,
                23.75,
                23.849998474121094,
                23.950000762939453,
                24.25,
                24.349998474121094,
                24.850000381469727,
                25.149999618530273,
                25.549999237060547,
                25.75,
                26.049999237060547,
                26.150001525878906,
                26.25,
                26.349998474121094,
                27.200000762939453,
                27.75,
                28.049999237060547,
                28.450000762939453,
                28.700000762939453,
                29.299999237060547,
                29.450000762939453,
                31.149999618530273,
                31.349998474121094,
                32.049999237060547,
                32.849998474121094,
                33.5,
                35.150001525878906,
                36.25,
                36.5,
                37.349998474121094,
                37.700000762939453,
                38.599998474121094,
                39.5,
                41.450000762939453,
                41.900001525878906,
                42.5,
                43.200000762939453,
                44.099998474121094,
                44.700000762939453,
                45.349998474121094,
                46,
                46.650001525878906,
                49.049999237060547,
                51.450000762939453,
                54.150001525878906,
                56.699996948242188,
                57.699996948242188,
                59.549999237060547,
                60.75,
                73.199996948242188,
                77.5,
                81.650001525878906,
                92.849998474121094
              ],
            "feature_index":3,
            "flat_feature_index":3,
            "has_nans":false,
            "nan_value_treatment":"AsIs"
          },
          {
            "borders":
              [
                2,
                8.7000007629394531,
                10.350000381469727,
                12.25,
                13.950000762939453,
                14.649999618530273,
                16.350000381469727,
                18.299999237060547,
                19.700000762939453,
                20.399999618530273,
                21.950000762939453,
                22.400001525878906,
                23.299999237060547,
                24.600000381469727,
                25.299999237060547,
                26.399999618530273,
                27.399999618530273,
                28.299999237060547,
                28.900001525878906,
                29.549999237060547,
                30.049999237060547,
                30.599998474121094,
                31.5,
                31.75,
                32.849998474121094,
                33.650001525878906,
                34.900001525878906,
                35.349998474121094,
                35.800003051757813,
                37.400001525878906,
                37.599998474121094,
                38.599998474121094,
                39.799999237060547,
                41.099998474121094,
                42.150001525878906,
                42.75,
                43.050003051757813,
                43.699996948242188,
                43.849998474121094,
                44.300003051757813,
                44.550003051757813,
                44.900001525878906,
                45.099998474121094,
                45.400001525878906,
                45.549999237060547,
                46.099998474121094,
                46.25,
                46.599998474121094,
                46.75,
                47,
                47.349998474121094,
                47.549999237060547,
                47.849998474121094,
                48.199996948242188,
                48.450000762939453,
                49.700000762939453,
                50.25,
                51.349998474121094,
                51.549999237060547,
                51.950000762939453,
                52.150001525878906,
                52.549999237060547,
                52.849998474121094,
                53.150001525878906,
                53.75,
                54.450000762939453,
                54.599998474121094,
                55.5,
                56.199996948242188,
                57,
                57.25,
                57.950000762939453,
                58.349998474121094,
                59.049999237060547,
                59.849998474121094,
                60.150001525878906,
                60.450000762939453,
                61.349998474121094,
                61.849998474121094,
                63.150001525878906,
                63.650001525878906,
                63.950000762939453,
                64.25,
                64.350006103515625,
                65.550003051757813,
                65.850006103515625,
                66.050003051757813,
                66.550003051757813,
                66.800003051757813,
                67.350006103515625,
                67.649993896484375,
                68.149993896484375,
                68.75,
                69.149993896484375,
                69.649993896484375,
                69.949996948242188,
                70.050003051757813,
                70.550003051757813,
                70.649993896484375,
                70.949996948242188,
                71.050003051757813,
                71.149993896484375,
                71.449996948242188,
                71.949996948242188,
                72.149993896484375,
                72.449996948242188,
                73.050003051757813,
                73.25,
                73.850006103515625,
                73.949996948242188,
                74.900001525878906,
                75.099998474121094,
                75.649993896484375,
                75.949996948242188,
                76.149993896484375,
                76.449996948242188,
                76.550003051757813,
                77.25,
                77.350006103515625,
                77.850006103515625,
                78.550003051757813,
                78.649993896484375,
                78.850006103515625,
                79.949996948242188,
                80.099998474121094,
                80.649993896484375,
                81.350006103515625,
                82.050003051757813,
                82.300003051757813,
                82.75,
                83.199996948242188,
                83.400001525878906,
                84.050003051757813,
                84.25,
                84.649993896484375,
                85.050003051757813,
                85.649993896484375,
                85.800003051757813,
                86.350006103515625,
                86.75,
                87.599998474121094,
                87.949996948242188,
                88.149993896484375,
                88.25,
                88.800003051757813,
                88.949996948242188,
                89.449996948242188,
                89.550003051757813,
                89.900001525878906,
                90.099998474121094,
                90.800003051757813,
                90.949996948242188,
                91.550003051757813,
                91.75,
                92.199996948242188,
                92.449996948242188,
                92.649993896484375,
                92.949996948242188,
                93.449996948242188,
                93.850006103515625,
                94.550003051757813,
                94.949996948242188,
                95.149993896484375,
                95.300003051757813,
                95.550003051757813,
                96.149993896484375,
                96.75,
                97.449996948242188,
                99.5
              ],
            "feature_index":4,
            "flat_feature_index":4,
            "has_nans":false,
            "nan_value_treatment":"AsIs"
          },
          {
            "borders":
              [
                0.014999999664723873,
                0.49500000476837158,
                0.73500001430511475,
                0.81499999761581421,
                0.94499999284744263,
                1.0049999952316284,
                1.0549999475479126,
                1.0950000286102295,
                1.1749999523162842,
                1.2450000047683716,
                1.315000057220459,
                1.3450000286102295,
                1.4049999713897705,
                1.4650000333786011,
                1.5249999761581421,
                1.565000057220459,
                1.5950000286102295,
                1.625,
                1.6449999809265137,
                1.6649999618530273,
                1.7250000238418579,
                1.7649999856948853,
                1.7949999570846558,
                1.8250000476837158,
                1.8450000286102295,
                1.875,
                1.8949999809265137,
                1.9149999618530273,
                1.934999942779541,
                1.9550000429153442,
                1.9750000238418579,
                1.9950000047683716,
                2.0149998664855957,
                2.0349998474121094,
                2.054999828338623,
                2.0850000381469727,
                2.1050000190734863,
                2.1350002288818359,
                2.1750001907348633,
                2.195000171661377,
                2.2150001525878906,
                2.255000114440918,
                2.2750000953674316,
                2.2950000762939453,
                2.315000057220459,
                2.3550000190734863,
                2.4250001907348633,
                2.445000171661377,
                2.4650001525878906,
                2.4850001335144043,
                2.5250000953674316,
                2.5450000762939453,
                2.565000057220459,
                2.5850000381469727,
                2.6050000190734863,
                2.625,
                2.6449999809265137,
                2.684999942779541,
                2.744999885559082,
                2.7649998664855957,
                2.804999828338623,
                2.8550000190734863,
                2.875,
                2.9149999618530273,
                2.934999942779541,
                2.9749999046325684,
                2.994999885559082,
                3.0349998474121094,
                3.0749998092651367,
                3.0949997901916504,
                3.1149997711181641,
                3.184999942779541,
                3.255000114440918,
                3.304999828338623,
                3.3249998092651367,
                3.3550000190734863,
                3.375,
                3.4050002098083496,
                3.4250001907348633,
                3.4549999237060547,
                3.4850001335144043,
                3.6050000190734863,
                3.6350002288818359,
                3.6550002098083496,
                3.684999942779541,
                3.7049999237060547,
                3.7350001335144043,
                3.755000114440918,
                3.7849998474121094,
                3.8449997901916504,
                3.875,
                3.9050002098083496,
                3.934999942779541,
                3.9650001525878906,
                4.0550003051757813,
                4.125,
                4.184999942779541,
                4.2150001525878906,
                4.315000057220459,
                4.3949999809265137,
                4.4250001907348633,
                4.505000114440918,
                4.5450000762939453,
                4.6949996948242188,
                4.7650003433227539,
                4.8450002670288086,
                4.934999942779541,
                4.9749999046325684,
                5.0150003433227539,
                5.0550003051757813,
                5.0950002670288086,
                5.2950000762939453,
                5.3450002670288086,
                5.3949999809265137,
                5.4549999237060547,
                5.505000114440918,
                5.5550003051757813,
                5.6549997329711914,
                5.7150001525878906,
                5.7750000953674316,
                5.8249998092651367,
                5.8850002288818359,
                5.9449996948242188,
                6.005000114440918,
                6.065000057220459,
                6.125,
                6.1949996948242188,
                6.255000114440918,
                6.3850002288818359,
                6.4549999237060547,
                6.6149997711181641,
                6.6949996948242188,
                6.7750000953674316,
                6.8550000190734863,
                6.9449996948242188,
                7.0349998474121094,
                7.125,
                7.2150001525878906,
                7.3050003051757813,
                7.3949999809265137,
                7.5950002670288086,
                7.6949996948242188,
                7.8050003051757813,
                8.005000114440918,
                8.2049999237060547,
                8.3249998092651367,
                8.4650001525878906,
                8.5850000381469727,
                8.7150001525878906,
                8.8450002670288086,
                9.005000114440918,
                9.1450004577636719,
                9.3249998092651367,
                9.4849996566772461,
                9.8150005340576172,
                9.9849996566772461,
                10.164999961853027,
                10.595000267028809,
                10.795000076293945,
                11.434999465942383,
                11.694999694824219,
                12.164999961853027,
                12.454999923706055,
                12.755000114440918,
                13.045000076293945,
                13.315000534057617,
                13.574999809265137,
                13.765000343322754,
                13.944999694824219,
                14.364999771118164,
                14.585000038146973,
                14.835000038146973,
                15.104999542236328,
                15.765000343322754,
                16.239999771118164,
                17.334999084472656,
                17.814998626708984,
                18.224998474121094,
                18.654998779296875,
                19.244998931884766,
                19.994998931884766,
                21.125,
                22.764999389648438,
                24.564998626708984,
                29.880001068115234
              ],
            "feature_index":5,
            "flat_feature_index":5,
            "has_nans":false,
            "nan_value_treatment":"AsIs"
          }
        ]
    },
  "model_info":
    {
      "catboost_version_info":"Git info:\n    Commit: 130b3ff9e57b9a4cc863ff6fb9ae20b4501e6f93\n    Branch: heads/master\n    Author: dvshkurko <dvshkurko@yandex-team.ru>\n    Summary: Extend definition of patch number to arc. DEVTOOLSSUPPORT-981\n    git-svn info:\n    Last Changed Rev: 6861880\n\nOther info:\n    Build by: zomb-ml-platform-msk\n    Top src dir: /Users/zomb-ml-platform-msk/go-agent-20.1.0/pipelines/BuildMaster/catboost.git\n    Top build dir: /Users/zomb-ml-platform-msk/.ya/build\n    Hostname: zomb-ml-platform-msk-macmini.zombie.yandex.net\n    Host information: \n        Darwin zomb-ml-platform-msk-macmini.zombie.yandex.net 17.6.0 Darwin Kernel Version 17.6.0: Tue May  8 15:22:16 PDT 2018; root:xnu-4570.61.1~1/RELEASE_X86_64 x86_64\n\n    ",
      "class_params":
        {
          "class_label_type":"Float",
          "class_names":
            [
              0,
              1
            ],
          "class_to_label":
            [
              0,
              1
            ],
          "classes_count":0
        },
      "model_guid":"8011ae42-6e6ec3d7-a5465969-56d7cf96",
      "output_options":"{\"name\":\"experiment\",\"verbose\":1,\"test_error_log\":\"test_error.tsv\",\"json_log\":\"catboost_training.json\",\"result_model_file\":\"model\",\"roc_file\":\"\",\"eval_file_name\":\"\",\"use_best_model\":true,\"allow_writing_files\":true,\"prediction_type\":[\"RawFormulaVal\"],\"fstr_internal_file\":\"\",\"output_columns\":[\"SampleId\",\"RawFormulaVal\",\"Label\"],\"snapshot_interval\":600,\"time_left_log\":\"time_left.tsv\",\"fstr_type\":\"FeatureImportance\",\"profile_log\":\"catboost_profile.log\",\"train_dir\":\"catboost_info\",\"learn_error_log\":\"learn_error.tsv\",\"training_options_file\":\"\",\"snapshot_file\":\"experiment.cbsnapshot\",\"save_snapshot\":false,\"model_format\":[\"CatboostBinary\"],\"final_feature_calcer_computation_mode\":\"Default\",\"metric_period\":1,\"output_borders\":\"\",\"final_ctr_computation_mode\":\"Default\",\"best_model_min_trees\":1,\"fstr_regular_file\":\"\"}",
      "params":
        {
          "boosting_options":
            {
              "approx_on_full_history":false,
              "boost_from_average":false,
              "boosting_type":"Plain",
              "fold_len_multiplier":2,
              "fold_permutation_block":0,
              "iterations":1000,
              "learning_rate":0.077569998800754547,
              "model_shrink_mode":"Constant",
              "model_shrink_rate":0,
              "od_config":
                {
                  "stop_pvalue":0,
                  "type":"None",
                  "wait_iterations":20
                },
              "permutation_count":4
            },
          "cat_feature_params":
            {
              "combinations_ctrs":
                [
                  {
                    "ctr_binarization":
                      {
                        "border_count":15,
                        "border_type":"Uniform"
                      },
                    "ctr_type":"Borders",
                    "prior_estimation":"No",
                    "priors":
                      [
                        [
                          0,
                          1
                        ],
                        [
                          0.5,
                          1
                        ],
                        [
                          1,
                          1
                        ]
                      ],
                    "target_binarization":
                      {
                        "border_count":1,
                        "border_type":"MinEntropy"
                      }
                  },
                  {
                    "ctr_binarization":
                      {
                        "border_count":15,
                        "border_type":"Uniform"
                      },
                    "ctr_type":"Counter",
                    "prior_estimation":"No",
                    "priors":
                      [
                        [
                          0,
                          1
                        ]
                      ]
                  }
                ],
              "counter_calc_method":"SkipTest",
              "ctr_leaf_count_limit":18446744073709551615,
              "max_ctr_complexity":4,
              "one_hot_max_size":2,
              "per_feature_ctrs":
                {
                },
              "simple_ctrs":
                [
                  {
                    "ctr_binarization":
                      {
                        "border_count":15,
                        "border_type":"Uniform"
                      },
                    "ctr_type":"Borders",
                    "prior_estimation":"No",
                    "priors":
                      [
                        [
                          0,
                          1
                        ],
                        [
                          0.5,
                          1
                        ],
                        [
                          1,
                          1
                        ]
                      ],
                    "target_binarization":
                      {
                        "border_count":1,
                        "border_type":"MinEntropy"
                      }
                  },
                  {
                    "ctr_binarization":
                      {
                        "border_count":15,
                        "border_type":"Uniform"
                      },
                    "ctr_type":"Counter",
                    "prior_estimation":"No",
                    "priors":
                      [
                        [
                          0,
                          1
                        ]
                      ]
                  }
                ],
              "store_all_simple_ctr":false,
              "target_binarization":
                {
                  "border_count":1,
                  "border_type":"MinEntropy"
                }
            },
          "data_processing_options":
            {
              "allow_const_label":false,
              "auto_class_weights":"None",
              "class_names":
                [
                  0,
                  1
                ],
              "class_weights":
                [
                ],
              "classes_count":0,
              "dev_default_value_fraction_for_sparse":0.82999998331069946,
              "dev_group_features":false,
              "dev_leafwise_scoring":false,
              "dev_sparse_array_indexing":"Indices",
              "float_features_binarization":
                {
                  "border_count":254,
                  "border_type":"GreedyLogSum",
                  "dev_max_subset_size_for_build_borders":200000,
                  "nan_mode":"Min"
                },
              "has_time":false,
              "ignored_features":
                [
                ],
              "per_float_feature_quantization":
                {
                },
              "target_border":null,
              "text_processing_options":
                {
                  "dictionaries":
                    [
                      {
                        "dictionary_id":"BiGram",
                        "end_of_sentence_token_policy":"Skip",
                        "end_of_word_token_policy":"Insert",
                        "gram_order":"2",
                        "max_dictionary_size":"50000",
                        "occurrence_lower_bound":"5",
                        "skip_step":"0",
                        "start_token_id":"0",
                        "token_level_type":"Word"
                      },
                      {
                        "dictionary_id":"Word",
                        "end_of_sentence_token_policy":"Skip",
                        "end_of_word_token_policy":"Insert",
                        "gram_order":"1",
                        "max_dictionary_size":"50000",
                        "occurrence_lower_bound":"5",
                        "skip_step":"0",
                        "start_token_id":"0",
                        "token_level_type":"Word"
                      }
                    ],
                  "feature_processing":
                    {
                      "default":
                        [
                          {
                            "dictionaries_names":
                              [
                                "BiGram",
                                "Word"
                              ],
                            "feature_calcers":
                              [
                                "BoW"
                              ],
                            "tokenizers_names":
                              [
                                "Space"
                              ]
                          },
                          {
                            "dictionaries_names":
                              [
                                "Word"
                              ],
                            "feature_calcers":
                              [
                                "NaiveBayes"
                              ],
                            "tokenizers_names":
                              [
                                "Space"
                              ]
                          }
                        ]
                    },
                  "tokenizers":
                    [
                      {
                        "delimiter":" ",
                        "languages":
                          [
                          ],
                        "lemmatizing":"0",
                        "lowercasing":"0",
                        "number_process_policy":"LeaveAsIs",
                        "number_token":"🔢",
                        "separator_type":"ByDelimiter",
                        "skip_empty":"1",
                        "split_by_set":"0",
                        "subtokens_policy":"SingleToken",
                        "token_types":
                          [
                            "Number",
                            "Unknown",
                            "Word"
                          ],
                        "tokenizer_id":"Space"
                      }
                    ]
                }
            },
          "detailed_profile":false,
          "flat_params":
            {
              "custom_metric":
                [
                  "AUC",
                  "Accuracy"
                ],
              "logging_level":"Silent",
              "loss_function":"Logloss",
              "random_seed":42
            },
          "logging_level":"Silent",
          "loss_function":
            {
              "params":
                [
                ],
              "type":"Logloss"
            },
          "metadata":
            {
            },
          "metrics":
            {
              "custom_metrics":
                [
                  {
                    "params":
                      [
                      ],
                    "type":"AUC"
                  },
                  {
                    "params":
                      [
                      ],
                    "type":"Accuracy"
                  }
                ],
              "eval_metric":
                {
                  "params":
                    [
                    ],
                  "type":"Logloss"
                },
              "objective_metric":
                {
                  "params":
                    [
                    ],
                  "type":"Logloss"
                }
            },
          "random_seed":42,
          "system_options":
            {
              "file_with_hosts":"hosts.txt",
              "node_port":0,
              "node_type":"SingleHost",
              "thread_count":8,
              "used_ram_limit":""
            },
          "task_type":"CPU",
          "tree_learner_options":
            {
              "bayesian_matrix_reg":0.10000000149011612,
              "bootstrap":
                {
                  "mvs_reg":null,
                  "subsample":0.80000001192092896,
                  "type":"MVS"
                },
              "depth":6,
              "dev_efb_max_buckets":1024,
              "dev_leafwise_approxes":false,
              "dev_score_calc_obj_block_size":5000000,
              "grow_policy":"SymmetricTree",
              "l2_leaf_reg":3,
              "leaf_estimation_backtracking":"AnyImprovement",
              "leaf_estimation_iterations":10,
              "leaf_estimation_method":"Newton",
              "max_leaves":64,
              "min_data_in_leaf":1,
              "model_size_reg":0.5,
              "monotone_constraints":
                {
                },
              "penalties":
                {
                  "feature_weights":
                    {
                    },
                  "first_feature_use_penalties":
                    {
                    },
                  "penalties_coefficient":1,
                  "per_object_feature_penalties":
                    {
                    }
                },
              "random_strength":1,
              "rsm":1,
              "sampling_frequency":"PerTree",
              "score_function":"Cosine",
              "sparse_features_conflict_fraction":0
            }
        },
      "train_finish_time":"2020-08-07T20:21:06Z"
    },
  "oblivious_trees":
    [
      {
        "leaf_values":
          [
            -0.10582994669610908,
            -0.14324078939002693,
            0.0089258987529900191,
            -0.033896411910845713,
            -0.14688174999042899,
            -0.19903000382865241,
            -0.095851691063505606,
            -0.10570947961083806,
            0,
            0,
            0,
            0,
            0,
            0,
            0,
            0,
            0.027565209170965197,
            -0.070306003582738391,
            0.11564384899252041,
            0.062321932683431149,
            -0.055678727769281865,
            -0.14420980652949014,
            0.023154100132175469,
            -0.011242531966408401,
            -0.08037790772835543,
            -0.15032162715811162,
            0.030631073126266058,
            -0.027179611764688565,
            -0.16174168092501484,
            -0.22819121363610206,
            -0.035430659723151126,
            -0.09512426375201849,
            -0.048147084628111972,
            -0.11966420067485317,
            0.11308454355658826,
            0.017495934866863846,
            -0.12406041001988241,
            -0.19988647268460832,
            0.022085707363378733,
            -0.035786220101584117,
            0,
            0,
            0,
            0,
            0,
            0,
            0,
            0,
            0.10034013903338802,
            -0.012448892354382859,
            0.20682682266635333,
            0.12302660650079618,
            -0.0023099473255994035,
            -0.096840290022021908,
            0.12587075530387887,
            0.045296826308016312,
            -0.011460620881841046,
            -0.096805604616178015,
            0.11172857212738141,
            0.065001962313214229,
            -0.096021888615761969,
            -0.20520412881003364,
            0.065136289919793533,
            -0.027765401143557078
          ],
        "leaf_weights":
          [
            565,
            1996,
            87,
            451,
            321,
            1247,
            40,
            211,
            0,
            0,
            0,
            0,
            0,
            0,
            0,
            0,
            3691,
            1828,
            827,
            721,
            1406,
            994,
            216,
            235,
            1157,
            3265,
            236,
            888,
            597,
            1955,
            98,
            410,
            266,
            914,
            53,
            187,
            119,
            453,
            14,
            75,
            0,
            0,
            0,
            0,
            0,
            0,
            0,
            0,
            3173,
            1124,
            954,
            559,
            806,
            444,
            182,
            162,
            773,
            1744,
            188,
            510,
            258,
            845,
            63,
            192
          ],
        "splits":
          [
            {
              "border":4.9499998092651367,
              "float_feature_index":1,
              "split_index":60,
              "split_type":"FloatFeature"
            },
            {
              "cat_feature_index":2,
              "split_index":611,
              "split_type":"OneHotFeature",
              "value":1121341681
            },
            {
              "cat_feature_index":5,
              "split_index":614,
              "split_type":"OneHotFeature",
              "value":1121341681
            },
            {
              "border":89.900001525878906,
              "float_feature_index":4,
              "split_index":403,
              "split_type":"FloatFeature"
            },
            {
              "border":14.649999618530273,
              "float_feature_index":4,
              "split_index":260,
              "split_type":"FloatFeature"
            },
            {
              "cat_feature_index":4,
              "split_index":613,
              "split_type":"OneHotFeature",
              "value":1121341681
            }
          ]
      },
      {
        "leaf_values":
          [
            -0.1089168652721534,
            -0.13448398177892026,
            0.015687759253318039,
            -0.027553595917277757,
            -0.042807512500944056,
            -0.09485954587942623,
            0.10571767458844446,
            0.013289448106079663,
            0,
            0,
            0,
            0,
            0,
            0,
            0,
            0,
            0.02338613463166371,
            -0.053860676692269724,
            0.088602024031491394,
            0.055748990063179897,
            0.082913903562263302,
            -0.017903230070369737,
            0.17496265955489326,
            0.12109557002667823,
            -0.08143212086223782,
            -0.12070569883900113,
            0.028254710374035957,
            -0.0034898658436538876,
            -0.028550655552451298,
            -0.11759084562931704,
            0.040254350217691137,
            0.036382782842548277,
            -0.13794937594868745,
            -0.19342883328570309,
            -0.052361954004770915,
            -0.075871889001748447,
            -0.12147747796372439,
            -0.1579868823588681,
            -0.11432540993870653,
            -0.091798505627608981,
            0,
            0,
            0,
            0,
            0,
            0,
            0,
            0,
            -0.050632129663440578,
            -0.12434692783567861,
            0.024519307276349288,
            -0.0015628315720517733,
            -0.010405665692784017,
            -0.095073682609136387,
            0.091079676014974284,
            0.037214481981519013,
            -0.16069673407492907,
            -0.21103225921215099,
            -0.014920303028353593,
            -0.067726151173214635,
            -0.13392660301354481,
            -0.15957842109670331,
            -0.01364879333153129,
            -0.07527424141106695
          ],
        "leaf_weights":
          [
            577,
            2371,
            89,
            505,
            197,
            525,
            41,
            123,
            0,
            0,
            0,
            0,
            0,
            0,
            0,
            0,
            3201,
            2002,
            531,
            726,
            4005,
            992,
            1366,
            605,
            1377,
            4507,
            243,
            1201,
            268,
            474,
            75,
            156,
            328,
            1404,
            31,
            230,
            98,
            290,
            18,
            55,
            0,
            0,
            0,
            0,
            0,
            0,
            0,
            0,
            1194,
            1024,
            184,
            251,
            1115,
            431,
            250,
            155,
            659,
            2573,
            93,
            540,
            113,
            216,
            37,
            54
          ],
        "splits":
          [
            {
              "border":4.9499998092651367,
              "float_feature_index":1,
              "split_index":60,
              "split_type":"FloatFeature"
            },
            {
              "cat_feature_index":2,
              "split_index":611,
              "split_type":"OneHotFeature",
              "value":1121341681
            },
            {
              "border":0.94999998807907104,
              "float_feature_index":3,
              "split_index":104,
              "split_type":"FloatFeature"
            },
            {
              "border":99.5,
              "float_feature_index":4,
              "split_index":423,
              "split_type":"FloatFeature"
            },
            {
              "border":12.25,
              "float_feature_index":4,
              "split_index":258,
              "split_type":"FloatFeature"
            },
            {
              "cat_feature_index":6,
              "split_index":615,
              "split_type":"OneHotFeature",
              "value":-1438285038
            }
          ]
      },
      {
        "leaf_values":
          [
            -0.044351757855859375,
            0,
            0.047922467993139421,
            0,
            -0.081186282296794185,
            0,
            0.0093800761861345932,
            0,
            0.017979911027463377,
            -0.048617839774074002,
            0.1107194870693048,
            0.05958258573373288,
            -0.020167492998187701,
            -0.070451930401258564,
            0.066224965815312425,
            0.038182282763052272,
            -0.077840367689433809,
            0,
            -0.011780877817135441,
            0,
            -0.16752302519425158,
            0,
            -0.069756358375761274,
            0,
            0.056721037095828972,
            -0.082467494614280393,
            0.13816174214368127,
            0.031415442608952363,
            -0.04233988193878737,
            -0.15276541064465274,
            0.040006561715251854,
            -0.039061178823187069,
            -0.099273666713761269,
            0,
            -0.055894108362582101,
            0,
            -0.14770613805046928,
            0,
            -0.029243444618749385,
            0,
            -0.033954029690521227,
            -0.096636110743531164,
            0.036929970879493255,
            -0.0034891834485340049,
            -0.1193706927694297,
            -0.14767580957665324,
            0.0047504729983495805,
            -0.021577869930877739,
            -0.12087827082627708,
            0,
            -0.07893429844248602,
            0,
            -0.23527096792446295,
            0,
            -0.10822765207183808,
            0,
            -0.027144106951521575,
            -0.15710647400792632,
            0.06296303870486368,
            -0.029448766169193483,
            -0.11093300738932856,
            -0.2306756524629465,
            0.0085920316363500455,
            -0.10622642282981498
          ],
        "leaf_weights":
          [
            311,
            0,
            61,
            0,
            290,
            0,
            40,
            0,
            1069,
            2030,
            350,
            705,
            327,
            2078,
            93,
            708,
            572,
            0,
            59,
            0,
            384,
            0,
            36,
            0,
            6019,
            3860,
            1552,
            1252,
            653,
            2903,
            154,
            651,
            148,
            0,
            19,
            0,
            141,
            0,
            15,
            0,
            362,
            988,
            94,
            248,
            123,
            1051,
            35,
            267,
            305,
            0,
            34,
            0,
            209,
            0,
            21,
            0,
            1915,
            2161,
            336,
            443,
            304,
            1738,
            59,
            327
          ],
        "splits":
          [
            {
              "border":4.9499998092651367,
              "float_feature_index":1,
              "split_index":60,
              "split_type":"FloatFeature"
            },
            {
              "cat_feature_index":2,
              "split_index":611,
              "split_type":"OneHotFeature",
              "value":1121341681
            },
            {
              "border":97.449996948242188,
              "float_feature_index":4,
              "split_index":422,
              "split_type":"FloatFeature"
            },
            {
              "border":4.1499996185302734,
              "float_feature_index":1,
              "split_index":51,
              "split_type":"FloatFeature"
            },
            {
              "border":0.5,
              "float_feature_index":2,
              "split_index":61,
              "split_type":"FloatFeature"
            },
            {
              "cat_feature_index":5,
              "split_index":614,
              "split_type":"OneHotFeature",
              "value":1121341681
            }
          ]
      },
      {
        "leaf_values":
          [
            -0.12046099874666683,
            0,
            -0.040118538052048465,
            0,
            -0.031276141752202891,
            -0.12270774469008257,
            0.016612570985610208,
            -0.032767874148889417,
            -0.051186055794909951,
            0,
            -0.01436453613171052,
            0,
            0.0388560896566039,
            -0.034459303497152906,
            0.1099036438386945,
            0.08454696565040655,
            0,
            0,
            0,
            0,
            0,
            0,
            0,
            0,
            -0.10864400132957079,
            0,
            -0.082029340482176916,
            0,
            -0.066162509822051394,
            -0.1076751950337618,
            0.040015916875875697,
            -0.012528307592130944,
            -0.076848271023628817,
            0,
            0.02694999608794273,
            0,
            0.019801485904407095,
            -0.080946537113633546,
            0.10581088618331538,
            0.032258557080315935,
            0.023871215968023753,
            0,
            0.067619523050164221,
            0,
            0.10013677375690552,
            0.0164977607373171,
            0.17344967348837778,
            0.1632242201278378,
            0,
            0,
            0,
            0,
            0,
            0,
            0,
            0,
            -0.02111551668938947,
            0,
            -0.040520413391684683,
            0,
            0.02588579736068862,
            -0.014160627708630653,
            0.15794448533047217,
            0.089940038764959832
          ],
        "leaf_weights":
          [
            1373,
            0,
            157,
            0,
            3092,
            9016,
            506,
            2153,
            52,
            0,
            8,
            0,
            2398,
            630,
            609,
            319,
            0,
            0,
            0,
            0,
            0,
            0,
            0,
            0,
            206,
            0,
            23,
            0,
            616,
            1639,
            201,
            444,
            575,
            0,
            74,
            0,
            2287,
            4865,
            431,
            1300,
            36,
            0,
            9,
            0,
            2196,
            329,
            819,
            265,
            0,
            0,
            0,
            0,
            0,
            0,
            0,
            0,
            39,
            0,
            7,
            0,
            262,
            330,
            114,
            120
          ],
        "splits":
          [
            {
              "border":4.9499998092651367,
              "float_feature_index":1,
              "split_index":60,
              "split_type":"FloatFeature"
            },
            {
              "cat_feature_index":2,
              "split_index":611,
              "split_type":"OneHotFeature",
              "value":1121341681
            },
            {
              "border":4.0500001907348633,
              "float_feature_index":1,
              "split_index":50,
              "split_type":"FloatFeature"
            },
            {
              "border":0.75,
              "float_feature_index":3,
              "split_index":102,
              "split_type":"FloatFeature"
            },
            {
              "border":26.150001525878906,
              "float_feature_index":3,
              "split_index":213,
              "split_type":"FloatFeature"
            },
            {
              "cat_feature_index":4,
              "split_index":613,
              "split_type":"OneHotFeature",
              "value":1121341681
            }
          ]
      },
      {
        "leaf_values":
          [
            -0.032352985693837245,
            -0.097453020314700642,
            0.018561941644982038,
            -0.017879236893999673,
            0.048921601405009785,
            -0.020837910903517984,
            0.11368941751958936,
            0.086201289271609999,
            0.017682175300032136,
            -0.058363141221851461,
            0.088288643075747311,
            0.046882599929445226,
            0.11250861337052756,
            0.031558734526034908,
            0.18382326841041802,
            0.14930375733387427,
            0,
            0,
            0,
            0,
            -0.04813556843997515,
            -0.086456044365509702,
            0.05298637406942458,
            0.015706106417918031,
            0,
            0,
            0,
            0,
            0.041123971226787799,
            0.007862696526383172,
            0.14946823696512729,
            0.15689951896226592,
            -0.087109799075642994,
            -0.1533560866264094,
            -0.033893864288451071,
            -0.060921641527579694,
            -0.010698906645786871,
            -0.059025458860243622,
            0.053647384546847872,
            0.047741683846318779,
            -0.040175053158664979,
            -0.12847225794639364,
            0.070636938671575653,
            -0.012427786908747558,
            0.019341581490317415,
            -0.038277581885844791,
            0.084936206231076797,
            0.15048976105141637,
            0,
            0,
            0,
            0,
            -0.12321728849433049,
            -0.13494076490992896,
            -0.054874789076982809,
            -0.095487963141463364,
            0,
            0,
            0,
            0,
            -0.062462609460485978,
            -0.084774779608861872,
            0.068781067804316087,
            -0.017082166002020047
          ],
        "leaf_weights":
          [
            3036,
            5585,
            467,
            1481,
            1852,
            429,
            506,
            259,
            2143,
            3295,
            399,
            952,
            1826,
            248,
            699,
            215,
            0,
            0,
            0,
            0,
            525,
            1075,
            177,
            320,
            0,
            0,
            0,
            0,
            243,
            239,
            97,
            89,
            1446,
            3431,
            198,
            673,
            581,
            200,
            106,
            59,
            746,
            1570,
            111,
            349,
            375,
            81,
            122,
            47,
            0,
            0,
            0,
            0,
            297,
            565,
            50,
            124,
            0,
            0,
            0,
            0,
            62,
            91,
            26,
            33
          ],
        "splits":
          [
            {
              "border":4.9499998092651367,
              "float_feature_index":1,
              "split_index":60,
              "split_type":"FloatFeature"
            },
            {
              "cat_feature_index":2,
              "split_index":611,
              "split_type":"OneHotFeature",
              "value":1121341681
            },
            {
              "border":1.4500000476837158,
              "float_feature_index":3,
              "split_index":109,
              "split_type":"FloatFeature"
            },
            {
              "cat_feature_index":4,
              "split_index":613,
              "split_type":"OneHotFeature",
              "value":1121341681
            },
            {
              "border":26.049999237060547,
              "float_feature_index":3,
              "split_index":212,
              "split_type":"FloatFeature"
            },
            {
              "cat_feature_index":6,
              "split_index":615,
              "split_type":"OneHotFeature",
              "value":-1438285038
            }
          ]
      },
      {
        "leaf_values":
          [
            -0.094977162015556116,
            -0.000247429938355806,
            0,
            -0.080651750435022887,
            0,
            0,
            0,
            0,
            -0.031452916647381646,
            -0.0088414905654019185,
            0,
            -0.059818088218963575,
            0,
            0,
            0,
            0,
            -0.025061911249081206,
            0.047934587721858525,
            0,
            -0.032762809216190306,
            -0.10417185429356506,
            -0.0045474908492201165,
            0,
            -0.084347955012470735,
            0.014825375753675735,
            0.099681196314092654,
            0,
            0.054643448837374049,
            -0.027672278628781244,
            0.079234074060191062,
            0,
            0.0051526237856709912,
            -0.058751838321871912,
            0.04538756552539918,
            0,
            -0.0311369960640972,
            0,
            0,
            0,
            0,
            0.019255752477185979,
            0.092206309617865453,
            0,
            -0.0074353540758926411,
            0,
            0,
            0,
            0,
            0.019886035508782568,
            0.097531245299833674,
            0,
            0.035814694868724212,
            -0.068591377992116828,
            0.033485636428366113,
            0,
            -0.011224056706395525,
            0.095599253965048689,
            0.15129227046638774,
            0,
            0.13563023645424274,
            0.027483623228873606,
            0.16467635842968009,
            0,
            0.087268993283290547
          ],
        "leaf_weights":
          [
            1473,
            60,
            0,
            281,
            0,
            0,
            0,
            0,
            171,
            7,
            0,
            31,
            0,
            0,
            0,
            0,
            3021,
            1780,
            0,
            1122,
            9016,
            311,
            0,
            1958,
            496,
            432,
            0,
            367,
            2155,
            178,
            0,
            583,
            644,
            42,
            0,
            82,
            0,
            0,
            0,
            0,
            87,
            8,
            0,
            15,
            0,
            0,
            0,
            0,
            2262,
            1730,
            0,
            635,
            4865,
            182,
            0,
            477,
            428,
            595,
            0,
            321,
            1301,
            167,
            0,
            217
          ],
        "splits":
          [
            {
              "border":1.75,
              "float_feature_index":3,
              "split_index":112,
              "split_type":"FloatFeature"
            },
            {
              "border":17.950000762939453,
              "float_feature_index":3,
              "split_index":185,
              "split_type":"FloatFeature"
            },
            {
              "border":4.9499998092651367,
              "float_feature_index":1,
              "split_index":60,
              "split_type":"FloatFeature"
            },
            {
              "cat_feature_index":2,
              "split_index":611,
              "split_type":"OneHotFeature",
              "value":1121341681
            },
            {
              "border":4.25,
              "float_feature_index":1,
              "split_index":52,
              "split_type":"FloatFeature"
            },
            {
              "cat_feature_index":4,
              "split_index":613,
              "split_type":"OneHotFeature",
              "value":1121341681
            }
          ]
      },
      {
        "leaf_values":
          [
            -0.048218857971904686,
            -0.037287433459886707,
            0.035045313789090683,
            0.029997659709411446,
            0,
            0,
            0,
            0,
            0.01842921082743746,
            -0.0089949996346620955,
            0.085220159216174596,
            0.076276590317703369,
            -0.036218440051943017,
            -0.043769434823233852,
            0.034693550324490494,
            0.034508786275327621,
            -0.081003698915888878,
            -0.15251281547386938,
            0.00079968542812789334,
            -0.079615348389799237,
            0,
            0,
            0,
            0,
            0.046052463556387715,
            -0.018156042685015722,
            0.1015702872042336,
            0.058952728085864277,
            -0.06714849462448734,
            -0.11994646248355123,
            0.0006786092479729996,
            -0.037183103675633634,
            -0.069731108824162738,
            -0.07103949411873213,
            -0.038295172614245997,
            -0.02103755580965256,
            0,
            0,
            0,
            0,
            -0.026482937164978914,
            -0.053662115709147737,
            0.019751207731545598,
            0.024847275152499786,
            -0.11007523259171371,
            -0.10971931091661026,
            -0.012124085914539782,
            -0.015592564980020344,
            -0.13107880264784882,
            -0.21593661620878474,
            -0.071592592431438312,
            -0.12784377311941239,
            0,
            0,
            0,
            0,
            -0.022360926750497497,
            -0.08036868895264232,
            0.04080474918806308,
            0.0063426182281962288,
            -0.12628536108350163,
            -0.18656920420058415,
            -0.025730386158447562,
            -0.093492525835631737
          ],
        "leaf_weights":
          [
            294,
            1193,
            67,
            325,
            0,
            0,
            0,
            0,
            1087,
            837,
            345,
            380,
            616,
            2078,
            132,
            708,
            505,
            1704,
            68,
            309,
            0,
            0,
            0,
            0,
            6094,
            2156,
            1547,
            945,
            1029,
            2903,
            186,
            649,
            165,
            618,
            20,
            138,
            0,
            0,
            0,
            0,
            345,
            370,
            93,
            110,
            264,
            1051,
            50,
            267,
            265,
            1079,
            33,
            147,
            0,
            0,
            0,
            0,
            1960,
            1082,
            337,
            296,
            508,
            1738,
            80,
            327
          ],
        "splits":
          [
            {
              "border":4.9499998092651367,
              "float_feature_index":1,
              "split_index":60,
              "split_type":"FloatFeature"
            },
            {
              "cat_feature_index":2,
              "split_index":611,
              "split_type":"OneHotFeature",
              "value":1121341681
            },
            {
              "border":99.5,
              "float_feature_index":4,
              "split_index":423,
              "split_type":"FloatFeature"
            },
            {
              "border":13.950000762939453,
              "float_feature_index":4,
              "split_index":259,
              "split_type":"FloatFeature"
            },
            {
              "border":0.5,
              "float_feature_index":2,
              "split_index":61,
              "split_type":"FloatFeature"
            },
            {
              "cat_feature_index":5,
              "split_index":614,
              "split_type":"OneHotFeature",
              "value":1121341681
            }
          ]
      },
      {
        "leaf_values":
          [
            -0.084074543260743581,
            -0.028742339943415397,
            0,
            -0.076187593266685963,
            -0.030762630751803563,
            -0.018598078323468898,
            0,
            -0.072319234329788359,
            0,
            0,
            0,
            0,
            0,
            0,
            0,
            0,
            -0.051058621332796754,
            0.0044636894259090796,
            0,
            -0.022396658648053118,
            0.015032090066883943,
            0.052748251887488218,
            0,
            -0.051129875065294116,
            0,
            0,
            0,
            0,
            0,
            0,
            0,
            0,
            -0.023729719745637153,
            0.029324014806670313,
            0,
            -0.072228036322757483,
            0.0094664892190978855,
            0.077174161120960039,
            0,
            0.018942701829932879,
            -0.088803441355215701,
            -0.018680313095090485,
            0,
            -0.082376701682137315,
            -0.025161178333186384,
            0.06804365470691115,
            0,
            -0.018456104812701869,
            0.016630417691553354,
            0.078716515709150295,
            0,
            -0.0015406798421556838,
            0.082267515045309533,
            0.13076117722560396,
            0,
            0.10701248962234029,
            -0.05629139277661873,
            0.01897804165631823,
            0,
            -0.0090041904432205701,
            0.024954133147108367,
            0.13066444559619894,
            0,
            0.055945339321085336
          ],
        "leaf_weights":
          [
            1473,
            118,
            0,
            223,
            171,
            15,
            0,
            23,
            0,
            0,
            0,
            0,
            0,
            0,
            0,
            0,
            644,
            77,
            0,
            47,
            87,
            16,
            0,
            7,
            0,
            0,
            0,
            0,
            0,
            0,
            0,
            0,
            2993,
            2462,
            0,
            468,
            492,
            667,
            0,
            136,
            9016,
            669,
            0,
            1600,
            2153,
            350,
            0,
            413,
            2220,
            2241,
            0,
            166,
            420,
            860,
            0,
            64,
            4865,
            345,
            0,
            314,
            1300,
            280,
            0,
            105
          ],
        "splits":
          [
            {
              "border":0.85000002384185791,
              "float_feature_index":3,
              "split_index":103,
              "split_type":"FloatFeature"
            },
            {
              "border":32.049999237060547,
              "float_feature_index":3,
              "split_index":225,
              "split_type":"FloatFeature"
            },
            {
              "cat_feature_index":2,
              "split_index":611,
              "split_type":"OneHotFeature",
              "value":1121341681
            },
            {
              "border":4.9499998092651367,
              "float_feature_index":1,
              "split_index":60,
              "split_type":"FloatFeature"
            },
            {
              "cat_feature_index":3,
              "split_index":612,
              "split_type":"OneHotFeature",
              "value":-1438285038
            },
            {
              "border":4.25,
              "float_feature_index":1,
              "split_index":52,
              "split_type":"FloatFeature"
            }
          ]
      },
      {
        "leaf_values":
          [
            -0.090754948367754246,
            0,
            -0.012360205673539106,
            0,
            -0.11327676270641875,
            0,
            -0.080004692377634537,
            0,
            -0.056247611444387606,
            0,
            0.01252476345486757,
            0,
            -0.13337454535906673,
            0,
            0.0018059061756533303,
            0,
            -0.023478982499686798,
            -0.082443344971772275,
            0.049299752593263899,
            -0.00070122691149417874,
            -0.085534644937242554,
            -0.11980880540230422,
            -0.0025764641169740274,
            -0.046275763684936501,
            0.027000289158348928,
            -0.042022077303250742,
            0.11316735947397082,
            0.049654486485684331,
            -0.039649901956506223,
            -0.10361995824331285,
            0.058783098985933473,
            -0.0036729165290383275,
            -0.058545404597981215,
            0,
            0,
            0,
            -0.1042695742884204,
            0,
            0,
            0,
            -0.024685693603880156,
            0,
            0,
            0,
            -0.048229233623137129,
            0,
            0,
            0,
            0.025385190732053465,
            -0.049340608749951297,
            0,
            0,
            -0.02262002360846195,
            -0.097349266866244316,
            0,
            0,
            0.074395637432521242,
            -0.018162984634929755,
            0,
            0,
            0.007532390493859769,
            -0.079414427699369169,
            0,
            0
          ],
        "leaf_weights":
          [
            393,
            0,
            125,
            0,
            202,
            0,
            70,
            0,
            191,
            0,
            71,
            0,
            73,
            0,
            19,
            0,
            1419,
            3117,
            1025,
            2060,
            618,
            1885,
            284,
            856,
            1555,
            1796,
            1124,
            1256,
            418,
            824,
            240,
            429,
            694,
            0,
            0,
            0,
            392,
            0,
            0,
            0,
            279,
            0,
            0,
            0,
            136,
            0,
            0,
            0,
            2907,
            3972,
            0,
            0,
            1112,
            2311,
            0,
            0,
            2187,
            1986,
            0,
            0,
            556,
            918,
            0,
            0
          ],
        "splits":
          [
            {
              "border":4.9499998092651367,
              "float_feature_index":1,
              "split_index":60,
              "split_type":"FloatFeature"
            },
            {
              "cat_feature_index":2,
              "split_index":611,
              "split_type":"OneHotFeature",
              "value":1121341681
            },
            {
              "cat_feature_index":5,
              "split_index":614,
              "split_type":"OneHotFeature",
              "value":1121341681
            },
            {
              "cat_feature_index":4,
              "split_index":613,
              "split_type":"OneHotFeature",
              "value":1121341681
            },
            {
              "border":4.1499996185302734,
              "float_feature_index":1,
              "split_index":51,
              "split_type":"FloatFeature"
            },
            {
              "cat_feature_index":1,
              "split_index":610,
              "split_type":"OneHotFeature",
              "value":1121341681
            }
          ]
      },
      {
        "leaf_values":
          [
            -0.0076836101873238374,
            0.070780194705475502,
            -0.036509160612813091,
            0.048744129722338721,
            0,
            0.00048819808402206195,
            0,
            -0.01322521890255364,
            -0.055791567605940125,
            0.0085670348078600699,
            -0.081418057095399191,
            -0.013450236056953864,
            0,
            -0.049344294744445613,
            0,
            -0.080545160593449003,
            0.031347156711186493,
            0.12433255220963529,
            -0.0036262858010525627,
            0.090576073486090411,
            0,
            0.081484448303034585,
            0,
            0.047661591574529115,
            -0.013101097843175792,
            0.058285147178001144,
            -0.048582091907200434,
            0.024083119656361642,
            0,
            0.0072259015869436186,
            0,
            -0.0059104706049161364,
            -0.050954615597612357,
            0.030950118526742267,
            -0.077641148520787712,
            0.021872010800817434,
            0,
            -0.0614685329487452,
            0,
            -0.067684792259360249,
            -0.090141009171067266,
            -0.054904927397000619,
            -0.11144565922554203,
            -0.055633101011856194,
            0,
            -0.11926707777354859,
            0,
            -0.12867996429830178,
            -0.005417181770498403,
            0.043019710214207675,
            -0.050566726749935086,
            0.052044052328294531,
            0,
            0.0054232704404936468,
            0,
            -0.015178526606166287,
            -0.065442760592028595,
            -0.0091765469770512861,
            -0.098047501032736559,
            -0.03477801049547935,
            0,
            -0.071296619088210902,
            0,
            -0.12253825049206372
          ],
        "leaf_weights":
          [
            2622,
            1620,
            4680,
            374,
            0,
            509,
            0,
            978,
            866,
            584,
            2386,
            143,
            0,
            362,
            0,
            588,
            1726,
            1671,
            2689,
            277,
            0,
            264,
            0,
            276,
            789,
            777,
            1557,
            115,
            0,
            180,
            0,
            124,
            1190,
            437,
            2587,
            125,
            0,
            231,
            0,
            455,
            448,
            200,
            1516,
            64,
            0,
            172,
            0,
            305,
            575,
            307,
            1180,
            74,
            0,
            69,
            0,
            93,
            271,
            167,
            739,
            30,
            0,
            53,
            0,
            55
          ],
        "splits":
          [
            {
              "border":0.20000000298023224,
              "float_feature_index":3,
              "split_index":101,
              "split_type":"FloatFeature"
            },
            {
              "border":4.9499998092651367,
              "float_feature_index":1,
              "split_index":60,
              "split_type":"FloatFeature"
            },
            {
              "border":24.850000381469727,
              "float_feature_index":3,
              "split_index":208,
              "split_type":"FloatFeature"
            },
            {
              "cat_feature_index":0,
              "split_index":609,
              "split_type":"OneHotFeature",
              "value":1121341681
            },
            {
              "cat_feature_index":3,
              "split_index":612,
              "split_type":"OneHotFeature",
              "value":-1438285038
            },
            {
              "cat_feature_index":5,
              "split_index":614,
              "split_type":"OneHotFeature",
              "value":1121341681
            }
          ]
      },
      {
        "leaf_values":
          [
            -0.042173674977349751,
            0.030448923200130703,
            -0.034836935371550866,
            0.077373043601722077,
            0,
            -0.011631591083978909,
            0,
            0.074097851229690093,
            -0.083375672470836201,
            -0.023956825072613371,
            -0.053957477304877197,
            0.029861638664016778,
            0,
            -0.08764732146614411,
            0,
            -0.026337611147751884,
            -0.07876138295738265,
            -0.0061445314406585331,
            -0.058330299619212496,
            0.010510337790141926,
            0,
            -0.077077175660752478,
            0,
            -0.023798333893683736,
            -0.081558487832260704,
            -0.052312300129698293,
            -0.11855071680957403,
            -0.033635331252598787,
            0,
            -0.10357072309858667,
            0,
            -0.087677719695092415,
            -0.017304642478599586,
            0.055989585006892696,
            0.019807383881106647,
            0.10753573205860396,
            0,
            -0.017895477493056998,
            0,
            0.038266683186981065,
            -0.06111633313964402,
            0.00039832895973955095,
            -0.025503443915035645,
            0.047485715591408691,
            0,
            -0.063323923474644286,
            0,
            -0.0074474206510472879,
            -0.055844953831490608,
            0.021218966768171758,
            -0.022027850666633229,
            0.042899504097546413,
            0,
            -0.065678115677443402,
            0,
            -0.019895316430791503,
            -0.10149271860433219,
            -0.057061309503956714,
            -0.067946771029860797,
            -0.016455276051697418,
            0,
            -0.14226853926160049,
            0,
            -0.093899072386653126
          ],
        "leaf_weights":
          [
            1757,
            229,
            888,
            203,
            0,
            420,
            0,
            83,
            884,
            103,
            549,
            94,
            0,
            303,
            0,
            63,
            1003,
            88,
            415,
            43,
            0,
            249,
            0,
            30,
            523,
            36,
            261,
            25,
            0,
            177,
            0,
            21,
            5546,
            2105,
            3534,
            1937,
            0,
            726,
            0,
            258,
            2368,
            811,
            1798,
            908,
            0,
            460,
            0,
            130,
            2776,
            585,
            1342,
            386,
            0,
            324,
            0,
            82,
            1441,
            302,
            749,
            205,
            0,
            226,
            0,
            54
          ],
        "splits":
          [
            {
              "border":0.85000002384185791,
              "float_feature_index":3,
              "split_index":103,
              "split_type":"FloatFeature"
            },
            {
              "cat_feature_index":4,
              "split_index":613,
              "split_type":"OneHotFeature",
              "value":1121341681
            },
            {
              "border":31.149999618530273,
              "float_feature_index":3,
              "split_index":223,
              "split_type":"FloatFeature"
            },
            {
              "cat_feature_index":0,
              "split_index":609,
              "split_type":"OneHotFeature",
              "value":1121341681
            },
            {
              "cat_feature_index":6,
              "split_index":615,
              "split_type":"OneHotFeature",
              "value":-1438285038
            },
            {
              "border":30.049999237060547,
              "float_feature_index":4,
              "split_index":275,
              "split_type":"FloatFeature"
            }
          ]
      },
      {
        "leaf_values":
          [
            -0.026580652508049279,
            0,
            -0.01589424934749405,
            0,
            -0.12565899447031625,
            0,
            -0.017999373274808141,
            0,
            -0.025461837616287009,
            0,
            -0.00077082549077599476,
            0,
            -0.097255618131225449,
            0,
            0.016438540822110204,
            0,
            0,
            0,
            0.016009125349021672,
            -0.045843651717615813,
            0,
            0,
            0.006621967609080192,
            -0.10877227042792939,
            0,
            0,
            0.025079336222456484,
            -0.025910793673452687,
            0,
            0,
            0.04775772480021151,
            -0.072331576960029315,
            0.012077628670207499,
            0,
            0.037071004743786107,
            0,
            -0.08517873672243291,
            0,
            0.0077704388430961373,
            0,
            0.040506524712237028,
            0,
            0.052514546358613377,
            0,
            -0.035098353563908884,
            0,
            0.051082084052384916,
            0,
            0,
            0,
            0.064995344446978923,
            0.014468101888325542,
            0,
            0,
            0.055520271910197129,
            -0.065334082081233605,
            0,
            0,
            0.073077427223693106,
            0.034613230120534147,
            0,
            0,
            0.093324509301398115,
            0.0088918060621118802
          ],
        "leaf_weights":
          [
            1653,
            0,
            946,
            0,
            2441,
            0,
            2979,
            0,
            617,
            0,
            525,
            0,
            1112,
            0,
            1899,
            0,
            0,
            0,
            703,
            2620,
            0,
            0,
            3529,
            4151,
            0,
            0,
            465,
            1389,
            0,
            0,
            2885,
            2027,
            390,
            0,
            271,
            0,
            391,
            0,
            640,
            0,
            160,
            0,
            167,
            0,
            166,
            0,
            531,
            0,
            0,
            0,
            256,
            722,
            0,
            0,
            916,
            834,
            0,
            0,
            234,
            435,
            0,
            0,
            1038,
            408
          ],
        "splits":
          [
            {
              "border":99.5,
              "float_feature_index":4,
              "split_index":423,
              "split_type":"FloatFeature"
            },
            {
              "border":13.950000762939453,
              "float_feature_index":4,
              "split_index":259,
              "split_type":"FloatFeature"
            },
            {
              "border":0.5,
              "float_feature_index":2,
              "split_index":61,
              "split_type":"FloatFeature"
            },
            {
              "cat_feature_index":4,
              "split_index":613,
              "split_type":"OneHotFeature",
              "value":1121341681
            },
            {
              "border":52.549999237060547,
              "float_feature_index":4,
              "split_index":316,
              "split_type":"FloatFeature"
            },
            {
              "cat_feature_index":2,
              "split_index":611,
              "split_type":"OneHotFeature",
              "value":1121341681
            }
          ]
      },
      {
        "leaf_values":
          [
            -0.025903886141563776,
            0.035864069735774204,
            0,
            -0.0046245037040423386,
            0.024640455884109753,
            0.10814044969719087,
            0,
            0.018709344182495202,
            0,
            0,
            0,
            0,
            0,
            0,
            0,
            0,
            0.019867374534471089,
            0.025405187684625543,
            0,
            -0.011904670408837296,
            0.071478938898860131,
            0.067456422899459606,
            0,
            0.034932167860392653,
            -0.035339467001766392,
            -0.031451182559145738,
            0,
            -0.027949678247747904,
            0.021955739189822718,
            -0.026818970939798473,
            0,
            0.010160560245887417,
            -0.051353788567428053,
            0.035670479670069387,
            0,
            -0.033486519507694247,
            -0.029862620467435413,
            0.070661384294960328,
            0,
            0.0052025703185716969,
            0,
            0,
            0,
            0,
            0,
            0,
            0,
            0,
            0.014304041495957055,
            0.040452916695810325,
            0,
            -0.013631644970673146,
            0.043770088240845162,
            0.087671360931125125,
            0,
            0.076696755802086569,
            -0.089295186050017947,
            -0.017261781904284457,
            0,
            -0.088917314648751786,
            -0.038343755604922647,
            0.010338549838928625,
            0,
            -0.026846017999166541
          ],
        "leaf_weights":
          [
            2854,
            207,
            0,
            680,
            705,
            68,
            0,
            215,
            0,
            0,
            0,
            0,
            0,
            0,
            0,
            0,
            751,
            296,
            0,
            120,
            239,
            152,
            0,
            98,
            3652,
            62,
            0,
            296,
            1019,
            23,
            0,
            116,
            5489,
            1327,
            0,
            1615,
            945,
            399,
            0,
            384,
            0,
            0,
            0,
            0,
            0,
            0,
            0,
            0,
            3014,
            2738,
            0,
            649,
            659,
            968,
            0,
            321,
            5473,
            190,
            0,
            528,
            1060,
            80,
            0,
            108
          ],
        "splits":
          [
            {
              "border":1.25,
              "float_feature_index":3,
              "split_index":107,
              "split_type":"FloatFeature"
            },
            {
              "border":21.349998474121094,
              "float_feature_index":3,
              "split_index":196,
              "split_type":"FloatFeature"
            },
            {
              "cat_feature_index":2,
              "split_index":611,
              "split_type":"OneHotFeature",
              "value":1121341681
            },
            {
              "border":97.449996948242188,
              "float_feature_index":4,
              "split_index":422,
              "split_type":"FloatFeature"
            },
            {
              "border":52.549999237060547,
              "float_feature_index":4,
              "split_index":316,
              "split_type":"FloatFeature"
            },
            {
              "border":0.5,
              "float_feature_index":2,
              "split_index":61,
              "split_type":"FloatFeature"
            }
          ]
      },
      {
        "leaf_values":
          [
            -0.047009003418693733,
            0,
            -0.071507028484216903,
            0,
            -0.0044985188200013151,
            -0.034275372388158025,
            -0.035636255785447497,
            -0.071714960094500735,
            0,
            0,
            0,
            0,
            0,
            0,
            0,
            0,
            -0.080520339098459237,
            0,
            -0.080888634849382177,
            0,
            -0.077840391841086834,
            -0.070221020718024121,
            -0.0701950312291343,
            -0.08209918774337005,
            0,
            0,
            0,
            0,
            0,
            0,
            0,
            0,
            0.025660218243909062,
            0,
            -0.025278220736814513,
            0,
            0.058857003567496943,
            0.022363573696352012,
            0.01484939674711654,
            -0.015496632566390381,
            -0.03103553905443204,
            0,
            -0.075956461099581193,
            0,
            0.0093861237476372955,
            -0.022671132146090973,
            -0.00093387439002964238,
            -0.060965114264942874,
            -0.032078949083887524,
            0,
            -0.067914465436706095,
            0,
            0.021774983542459492,
            -0.01617956006140445,
            -0.03575918174804462,
            -0.054134467292143613,
            -0.066401388671333203,
            0,
            -0.1231444564443379,
            0,
            -0.0025834069503537474,
            -0.0573438567165451,
            -0.06334566715987397,
            -0.11644338943190975
          ],
        "leaf_weights":
          [
            424,
            0,
            243,
            0,
            150,
            2183,
            68,
            1219,
            0,
            0,
            0,
            0,
            0,
            0,
            0,
            0,
            217,
            0,
            119,
            0,
            73,
            1332,
            35,
            758,
            0,
            0,
            0,
            0,
            0,
            0,
            0,
            0,
            1786,
            0,
            594,
            0,
            4540,
            2962,
            1253,
            1185,
            838,
            0,
            419,
            0,
            674,
            4129,
            232,
            2110,
            617,
            0,
            220,
            0,
            1953,
            1342,
            623,
            670,
            411,
            0,
            200,
            0,
            287,
            2239,
            114,
            1281
          ],
        "splits":
          [
            {
              "border":4.9499998092651367,
              "float_feature_index":1,
              "split_index":60,
              "split_type":"FloatFeature"
            },
            {
              "cat_feature_index":5,
              "split_index":614,
              "split_type":"OneHotFeature",
              "value":1121341681
            },
            {
              "border":4.5500001907348633,
              "float_feature_index":1,
              "split_index":55,
              "split_type":"FloatFeature"
            },
            {
              "border":91.75,
              "float_feature_index":4,
              "split_index":408,
              "split_type":"FloatFeature"
            },
            {
              "cat_feature_index":0,
              "split_index":609,
              "split_type":"OneHotFeature",
              "value":1121341681
            },
            {
              "border":8.7000007629394531,
              "float_feature_index":4,
              "split_index":256,
              "split_type":"FloatFeature"
            }
          ]
      },
      {
        "leaf_values":
          [
            -0.0085528648357194072,
            0.075115649549925348,
            0,
            0.014739423747644198,
            -0.069572080223147051,
            0.15232008160500346,
            0,
            -0.067488704001664929,
            -0.042186818474749421,
            0.070454253790183261,
            0,
            -0.0028211548380819101,
            -0.085978978821697999,
            0.0046787115141275586,
            0,
            -0.040772959212324975,
            -0.014123441868217842,
            0.11528454568815608,
            0,
            -0.025766227658356337,
            -0.057636307576476704,
            -0.11200132094199272,
            0,
            -0.072930533991569971,
            -0.077663884512097256,
            0.054621916262164373,
            0,
            -0.048925712680973815,
            -0.091942703145729054,
            0.018979908907292828,
            0,
            -0.15251969081090314,
            0.014747922423992046,
            0.058574823809744152,
            0,
            0.028225522222890105,
            -0.012685537787364217,
            0.045162699409393381,
            0,
            -0.023320639785163518,
            -0.00069381609486135986,
            0.07711066920350125,
            0,
            0.01195560454621967,
            -0.031419097516257447,
            0.026397855258392871,
            0,
            -0.017457317616221189,
            0.00035394271481684227,
            0.055426381753196259,
            0,
            0.0098204252701619612,
            -0.036012823227414607,
            -0.012142669397971661,
            0,
            -0.041203548334824168,
            -0.053473131662795416,
            0.049699099233982587,
            0,
            -0.043503178962882853,
            -0.075316200992950152,
            0.020948115147573429,
            0,
            -0.086110833904152445
          ],
        "leaf_weights":
          [
            699,
            38,
            0,
            233,
            400,
            15,
            0,
            120,
            1539,
            419,
            0,
            659,
            591,
            200,
            0,
            353,
            676,
            2,
            0,
            99,
            395,
            2,
            0,
            54,
            1032,
            36,
            0,
            127,
            498,
            11,
            0,
            72,
            2259,
            228,
            0,
            728,
            1192,
            96,
            0,
            375,
            5573,
            2152,
            0,
            2292,
            2428,
            789,
            0,
            1452,
            2323,
            13,
            0,
            208,
            1278,
            10,
            0,
            110,
            3221,
            95,
            0,
            358,
            1804,
            28,
            0,
            218
          ],
        "splits":
          [
            {
              "border":1.6500000953674316,
              "float_feature_index":3,
              "split_index":111,
              "split_type":"FloatFeature"
            },
            {
              "border":13.850000381469727,
              "float_feature_index":3,
              "split_index":170,
              "split_type":"FloatFeature"
            },
            {
              "cat_feature_index":0,
              "split_index":609,
              "split_type":"OneHotFeature",
              "value":1121341681
            },
            {
              "border":0.5,
              "float_feature_index":2,
              "split_index":61,
              "split_type":"FloatFeature"
            },
            {
              "border":95.550003051757813,
              "float_feature_index":4,
              "split_index":419,
              "split_type":"FloatFeature"
            },
            {
              "border":2.2750000953674316,
              "float_feature_index":5,
              "split_index":466,
              "split_type":"FloatFeature"
            }
          ]
      },
      {
        "leaf_values":
          [
            -0.019608095987718083,
            0.081372105108782719,
            -0.057583733577133631,
            0.059532526218804685,
            0,
            0.0050690985199606095,
            0,
            -0.026569370570340919,
            -0.032029398929512953,
            0.05459321222528081,
            -0.062882989081424617,
            0.035185109057180884,
            0,
            -0.017416115942910922,
            0,
            -0.068558673411212023,
            0.013072447434088278,
            0.12489780819476158,
            -0.012033704068364908,
            0.054616644873054815,
            0,
            0.045312668088232713,
            0,
            -0.014708653731301194,
            0,
            0,
            0,
            0,
            0,
            0,
            0,
            0,
            0.026239714068154472,
            0.078607827810013783,
            -0.014942157874188927,
            0.025536282635841748,
            0,
            0.013721574230690259,
            0,
            -0.0287918624315045,
            -0.039424010147868782,
            0.027982075173199745,
            -0.090598031878708421,
            -0.0080776589664820209,
            0,
            -0.0002146753350077213,
            0,
            -0.10438089436675221,
            0.0032103066107093997,
            0.075845894797933688,
            -0.027456872714403838,
            0.040112989110557565,
            0,
            0.033648637411325365,
            0,
            0.00026285192545411122,
            0,
            0,
            0,
            0,
            0,
            0,
            0,
            0
          ],
        "leaf_weights":
          [
            7249,
            520,
            3752,
            111,
            0,
            1542,
            0,
            653,
            5158,
            336,
            2762,
            89,
            0,
            1633,
            0,
            647,
            2969,
            296,
            1217,
            63,
            0,
            1118,
            0,
            333,
            0,
            0,
            0,
            0,
            0,
            0,
            0,
            0,
            1179,
            952,
            455,
            243,
            0,
            583,
            0,
            211,
